digraph Tree {
node [shape=box] ;
0 [label="X[4] <= 92.5\nentropy = 0.076\nsamples = 14663\nvalue = [14527, 136]"] ;
1 [label="X[0] <= 0.5\nentropy = 0.103\nsamples = 7220\nvalue = [7123, 97]"] ;
0 -> 1 [labeldistance=2.5, labelangle=45, headlabel="True"] ;
2 [label="X[4] <= 8.0\nentropy = 0.108\nsamples = 6768\nvalue = [6671, 97]"] ;
1 -> 2 ;
3 [label="X[97] <= 0.5\nentropy = 0.037\nsamples = 758\nvalue = [755, 3]"] ;
2 -> 3 ;
4 [label="X[93] <= 0.5\nentropy = 0.027\nsamples = 752\nvalue = [750, 2]"] ;
3 -> 4 ;
5 [label="entropy = 0.015\nsamples = 725\nvalue = [724, 1]"] ;
4 -> 5 ;
6 [label="entropy = 0.229\nsamples = 27\nvalue = [26, 1]"] ;
4 -> 6 ;
7 [label="X[1] <= 336.5\nentropy = 0.65\nsamples = 6\nvalue = [5, 1]"] ;
3 -> 7 ;
8 [label="entropy = 0.0\nsamples = 4\nvalue = [4, 0]"] ;
7 -> 8 ;
9 [label="entropy = 1.0\nsamples = 2\nvalue = [1, 1]"] ;
7 -> 9 ;
10 [label="X[4] <= 40.5\nentropy = 0.116\nsamples = 6010\nvalue = [5916, 94]"] ;
2 -> 10 ;
11 [label="X[3] <= 64978.5\nentropy = 0.845\nsamples = 33\nvalue = [24, 9]"] ;
10 -> 11 ;
12 [label="entropy = 0.503\nsamples = 27\nvalue = [24, 3]"] ;
11 -> 12 ;
13 [label="entropy = 0.0\nsamples = 6\nvalue = [0, 6]"] ;
11 -> 13 ;
14 [label="X[4] <= 52.5\nentropy = 0.108\nsamples = 5977\nvalue = [5892, 85]"] ;
10 -> 14 ;
15 [label="entropy = 0.19\nsamples = 687\nvalue = [667, 20]"] ;
14 -> 15 ;
16 [label="entropy = 0.096\nsamples = 5290\nvalue = [5225, 65]"] ;
14 -> 16 ;
17 [label="entropy = 0.0\nsamples = 452\nvalue = [452, 0]"] ;
1 -> 17 ;
18 [label="X[2] <= 0.5\nentropy = 0.047\nsamples = 7443\nvalue = [7404, 39]"] ;
0 -> 18 [labeldistance=2.5, labelangle=-45, headlabel="False"] ;
19 [label="X[1] <= 524.0\nentropy = 0.035\nsamples = 5913\nvalue = [5891, 22]"] ;
18 -> 19 ;
20 [label="X[4] <= 110.5\nentropy = 0.041\nsamples = 5003\nvalue = [4981, 22]"] ;
19 -> 20 ;
21 [label="X[3] <= 56979.5\nentropy = 0.053\nsamples = 3134\nvalue = [3115, 19]"] ;
20 -> 21 ;
22 [label="entropy = 0.0\nsamples = 374\nvalue = [374, 0]"] ;
21 -> 22 ;
23 [label="entropy = 0.059\nsamples = 2760\nvalue = [2741, 19]"] ;
21 -> 23 ;
24 [label="X[15] <= 11.5\nentropy = 0.017\nsamples = 1869\nvalue = [1866, 3]"] ;
20 -> 24 ;
25 [label="entropy = 0.0\nsamples = 1473\nvalue = [1473, 0]"] ;
24 -> 25 ;
26 [label="entropy = 0.064\nsamples = 396\nvalue = [393, 3]"] ;
24 -> 26 ;
27 [label="entropy = 0.0\nsamples = 910\nvalue = [910, 0]"] ;
19 -> 27 ;
28 [label="X[80] <= 0.5\nentropy = 0.088\nsamples = 1530\nvalue = [1513, 17]"] ;
18 -> 28 ;
29 [label="X[4] <= 95.5\nentropy = 0.084\nsamples = 1529\nvalue = [1513, 16]"] ;
28 -> 29 ;
30 [label="entropy = 0.0\nsamples = 261\nvalue = [261, 0]"] ;
29 -> 30 ;
31 [label="X[25] <= 0.5\nentropy = 0.098\nsamples = 1268\nvalue = [1252, 16]"] ;
29 -> 31 ;
32 [label="entropy = 0.093\nsamples = 1266\nvalue = [1251, 15]"] ;
31 -> 32 ;
33 [label="entropy = 1.0\nsamples = 2\nvalue = [1, 1]"] ;
31 -> 33 ;
34 [label="entropy = 0.0\nsamples = 1\nvalue = [0, 1]"] ;
28 -> 34 ;
}